3 10
sentence -0.030492747 0.011402034 -0.010575588 -0.015589896 0.033361915 -0.012577725 0.0251031 -0.034239613 0.029650608 -0.025525892
third -0.04297787 -0.040908642 0.0067663863 -0.034819644 0.023506168 0.024630705 -0.048397496 0.0034325777 0.023680966 -0.009075415
fourth 0.0029457603 0.035806093 -0.02870225 0.033988312 -0.020880999 -0.004890785 -0.025424713 -0.0038348853 0.017497618 -0.04193527
